    0.236490082492152709E+01    0.128059659925491843E+03    0.419486013480556608E+01   -0.473841705322265625E+02
    0.987807661294937134E+00    0.111204270124435425E+03    0.455495619773864746E+01   -0.449192657470703125E+02
    0.169247644892153049E+01    0.814332838766152776E+02    0.426290399742525228E+01   -0.449055175781250000E+02
    0.185623720288276672E+01    0.121394733190536499E+03    0.434444487094879150E+01   -0.447175331115722656E+02
    0.188944730438496111E+01    0.114557176585255377E+03    0.435786693581054863E+01   -0.446693229675292969E+02
    0.120934454034241479E+01    0.647647915328001602E+02    0.445609601855402815E+01   -0.440100708007812500E+02
    0.205252826213836670E+01    0.116977021694183350E+03    0.422680163383483887E+01   -0.439840888977050781E+02
    0.217505085262492770E+01    0.632472605898885050E+02    0.433893471195129266E+01   -0.437627792358398438E+02
    0.684388182782242227E+00    0.123194802946789451E+03    0.484867356047001330E+01   -0.436630249023437500E+02
    0.114591389894485474E+01    0.711203014850616455E+02    0.455243062973022461E+01   -0.434589767456054688E+02
    0.220810607075691223E+01    0.120452681779861450E+03    0.419001507759094238E+01   -0.434199600219726562E+02
    0.106983888997068766E+01    0.929769170959380062E+02    0.459823119193831520E+01   -0.433870811462402344E+02
    0.166186457602413928E+01    0.888415103586047223E+02    0.433579734189535859E+01   -0.433598251342773438E+02
    0.124872263792672333E+01    0.846587968100720900E+02    0.455225843283168174E+01   -0.433470535278320312E+02
    0.223125374224005091E+01    0.100551777046451178E+03    0.428983095338122933E+01   -0.433421592712402344E+02
    0.179256268343758007E+01    0.833398272681332060E+02    0.422167473761479428E+01   -0.431207160949707031E+02
    0.221618285674276549E+01    0.894353293807121190E+02    0.427756954966261826E+01   -0.430569152832031250E+02
    0.978136242693094515E+00    0.909471251596273476E+02    0.457178931367592600E+01   -0.429404373168945312E+02
    0.212836965918540955E+01    0.102436665296554565E+03    0.422198820114135742E+01   -0.429254875183105469E+02
    0.329142254702509240E+00    0.133734222695452274E+03    0.511283404688016851E+01   -0.429119110107421875E+02
    0.127096364122609606E+01    0.108613908944434783E+03    0.455914459702672925E+01   -0.428792686462402344E+02
    0.241088583188329775E+01    0.709623663364201605E+02    0.425902392573323674E+01   -0.428633041381835938E+02
    0.119806122202783460E+01    0.694052457481867435E+02    0.453862035687794041E+01   -0.428591537475585938E+02
    0.160157931796422481E+01    0.932390777528333388E+02    0.432686081708012615E+01   -0.428526802062988281E+02
    0.238155990839004517E+01    0.952164745330810547E+02    0.416666090488433838E+01   -0.428355102539062500E+02
    0.194295779958701242E+01    0.959289951918195385E+02    0.420896180079059157E+01   -0.428059844970703125E+02
    0.211001485586166382E+00    0.152048883438110352E+03    0.520751607418060303E+01   -0.426720275878906250E+02
    0.868791307521781353E+00    0.979009010292982964E+02    0.471127039165705153E+01   -0.426111373901367188E+02
    0.223134226418121617E+01    0.972072138464408084E+02    0.420265330299238560E+01   -0.425918121337890625E+02
    0.211084735613150176E+01    0.105675835129459870E+03    0.418280329710809973E+01   -0.425594749450683594E+02
    0.625648895524340665E+00    0.119499828012966987E+03    0.473779645387189152E+01   -0.425147476196289062E+02
    0.152376204729080200E+01    0.824440395832061768E+02    0.429784250259399414E+01   -0.425110473632812500E+02
    0.137041366977861712E+01    0.109314276795531754E+03    0.442475016591234116E+01   -0.425052719116210938E+02
    0.172401588041838227E+01    0.774335654959302815E+02    0.424735964636231245E+01   -0.424586830139160156E+02
    0.111063823103904724E+01    0.756457602977752686E+02    0.452993261814117432E+01   -0.424126281738281250E+02
    0.136439120351096399E+01    0.105190259878381269E+03    0.448431259216960587E+01   -0.423552207946777344E+02
    0.154044724896170493E+01    0.107688079014767922E+03    0.433594159427855352E+01   -0.423486557006835938E+02
    0.213499337928389071E+00    0.146622710933545534E+03    0.516811382256661034E+01   -0.423088302612304688E+02
    0.743386643902863353E+00    0.994389188689325465E+02    0.480423630799282453E+01   -0.423067398071289062E+02
    0.286722915586159421E+00    0.118914203620261404E+03    0.514689760365573790E+01   -0.422608451843261719E+02
    0.233599917941122159E+01    0.870013098613428895E+02    0.425658233046269618E+01   -0.422543411254882812E+02
    0.230335121821401945E+01    0.792247978576440630E+02    0.421061336302543410E+01   -0.422534942626953125E+02
    0.116727516055107117E+01    0.868761336803436279E+02    0.451054477691650391E+01   -0.422148399353027344E+02
    0.208608398145639740E+01    0.735053064108595606E+02    0.422025150804923754E+01   -0.421536598205566406E+02
    0.142860022746876103E+01    0.782696654184473886E+02    0.448997330060052580E+01   -0.421254539489746094E+02
    0.113005842083232544E+01    0.748605406458625993E+02    0.450088956191850009E+01   -0.421084060668945312E+02
    0.230262243446441284E+01    0.112177721949432879E+03    0.418111135245721854E+01   -0.420847320556640625E+02
    0.109321989686110799E+01    0.850260652636135603E+02    0.450279558439865468E+01   -0.420470657348632812E+02
    0.985151203620606042E+00    0.113845916719617009E+03    0.458492450532155615E+01   -0.420350189208984375E+02
    0.192936241754730631E+01    0.905794482011753530E+02    0.422597009502525989E+01   -0.420322265625000000E+02
    0.710710138082504272E+00    0.123312929868698120E+03    0.472717928886413574E+01   -0.419905052185058594E+02
    0.230575954322392063E+01    0.858951306289707759E+02    0.417150958231580127E+01   -0.419772796630859375E+02
    0.233908489482591264E+01    0.101178865563028779E+03    0.416989246096968014E+01   -0.419706306457519531E+02
    0.690206771652554174E+00    0.963856776617625570E+02    0.478110469859904086E+01   -0.419700736999511719E+02
    0.200259737393323967E+01    0.866633518429229781E+02    0.425533532501140854E+01   -0.419544563293457031E+02
    0.921797004860072766E+00    0.897755867238558096E+02    0.463000013442354685E+01   -0.419495506286621094E+02
    0.994472935633771371E+00    0.922086580478013360E+02    0.459639735866262811E+01   -0.419176635742187500E+02
    0.126513257622718811E+01    0.996280646324157715E+02    0.442761254310607910E+01   -0.419000091552734375E+02
    0.107177411757680341E+01    0.693556483388999254E+02    0.449438752582314205E+01   -0.418950424194335938E+02
    0.120337857988257957E+01    0.935083693051958562E+02    0.456259027892832947E+01   -0.418799362182617188E+02
    0.685772692831901898E+00    0.962032274879056502E+02    0.479644105033523882E+01   -0.418771896362304688E+02
    0.978392142834209166E+00    0.108609101214876205E+03    0.459581775652698088E+01   -0.418683166503906250E+02
    0.102091464700955892E+01    0.936867799677749815E+02    0.456949202688342204E+01   -0.418661422729492188E+02
    0.577327288748863188E+00    0.898044594455549543E+02    0.482074777131956811E+01   -0.417757148742675781E+02
    0.778295011103061984E+00    0.996418086625670441E+02    0.465619701092976879E+01   -0.417386283874511719E+02
    0.221512024416453990E+01    0.766183107021389844E+02    0.424562266230561391E+01   -0.417346267700195312E+02
    0.112888283985326332E+01    0.798629643314151565E+02    0.444941524560167778E+01   -0.417094039916992188E+02
    0.659137921673065841E+00    0.107413257851507112E+03    0.472964189538884661E+01   -0.417024421691894531E+02
    0.210214572031790370E+01    0.823293543741292808E+02    0.426531838477812908E+01   -0.416711540222167969E+02
    0.624094952825827276E+00    0.933389239065501215E+02    0.481247669375952825E+01   -0.416356048583984375E+02
    0.199699559335313137E+01    0.101629407293655191E+03    0.426541797962168445E+01   -0.416092910766601562E+02
    0.589144276517666987E+00    0.111422896196942801E+03    0.481968130330084676E+01   -0.416070327758789062E+02
    0.107942983630961886E+01    0.899621055933999827E+02    0.450297247660858257E+01   -0.415969238281250000E+02
    0.188361833762971109E+01    0.974907011981786695E+02    0.426849990618390596E+01   -0.415883560180664062E+02
    0.121266523813014571E+01    0.959474992341193911E+02    0.450816824561321905E+01   -0.415798873901367188E+02
    0.731650082115425038E+00    0.119987945174922288E+03    0.478245674827368372E+01   -0.415784416198730469E+02
    0.885968252055432393E+00    0.113356582050625192E+03    0.460730210484213742E+01   -0.415388793945312500E+02
    0.209360747269250114E+01    0.744598971563955985E+02    0.420661747660170704E+01   -0.415236167907714844E+02
    0.225428677698595470E+01    0.770051774542100702E+02    0.427206830325760833E+01   -0.415172004699707031E+02
    0.928131625866430165E+00    0.948446795404664726E+02    0.467968794087308559E+01   -0.414998474121093750E+02
    0.102155485513839794E+01    0.945727537813982053E+02    0.458836944817454562E+01   -0.414861068725585938E+02
    0.578302970085760815E+00    0.128855060858625990E+03    0.488532037838287092E+01   -0.414707450866699219E+02
    0.126345430236744183E+01    0.884338861296913166E+02    0.447679914621089470E+01   -0.414688987731933594E+02
    0.133002793198098157E+01    0.966528788486224641E+02    0.447464049501666761E+01   -0.414500389099121094E+02
    0.105211572413754029E+01    0.102936875398920591E+03    0.453410890842038405E+01   -0.414485511779785156E+02
    0.885138770460000557E+00    0.842169387037026809E+02    0.460995614293744094E+01   -0.414441108703613281E+02
    0.796843044073935469E+00    0.101879601752305888E+03    0.464367510241770542E+01   -0.414413452148437500E+02
    0.863885860387701432E+00    0.858652049453308308E+02    0.462849419043045529E+01   -0.414226417541503906E+02
    0.132601936903075934E+01    0.893671925474521061E+02    0.442191382749556450E+01   -0.413967132568359375E+02
    0.140772329715586708E+01    0.971437968199680597E+02    0.441646525710037352E+01   -0.413896827697753906E+02
    0.144860766861851165E+01    0.100690236909684074E+03    0.446906783787723150E+01   -0.413698310852050781E+02
    0.320634709566560594E+00    0.114574741087222833E+03    0.509890837926676088E+01   -0.413680458068847656E+02
    0.641577346734913290E+00    0.956074404388722883E+02    0.484238804228926067E+01   -0.413668479919433594E+02
    0.848531179522575618E+00    0.108014372785146861E+03    0.464113309347154068E+01   -0.413412590026855469E+02
    0.806619245962475473E+00    0.116678971568354498E+03    0.469157255582729604E+01   -0.413336791992187500E+02
    0.481873171930274680E+00    0.115371736107945395E+03    0.489209787477991664E+01   -0.413314056396484375E+02
    0.179846610273297736E+01    0.945462753817419639E+02    0.421458648487104170E+01   -0.413240623474121094E+02
    0.719411501919022589E+00    0.992490026804893830E+02    0.480025375705585144E+01   -0.412764739990234375E+02
    0.718432998752057239E+00    0.989983288809601447E+02    0.474746347152584214E+01   -0.412397155761718750E+02
    0.721776226586027803E+00    0.100794247429584232E+03    0.478497054596336735E+01   -0.412269477844238281E+02
    0.367201290072065145E+00    0.115704804824046107E+03    0.509178308299759497E+01   -0.411627731323242188E+02
    0.200097303357994072E+01    0.889689349880621592E+02    0.422896343981048251E+01   -0.411585884094238281E+02
    0.710325509947540512E+00    0.981047525058802989E+02    0.468065429302482894E+01   -0.411521453857421875E+02
    0.916634642868350280E+00    0.957775098527654336E+02    0.459407500852985518E+01   -0.411361198425292969E+02
    0.130374365929550384E+01    0.102443602375496894E+03    0.446384742028880055E+01   -0.411321449279785156E+02
    0.115572538389344492E+01    0.800856618593803660E+02    0.448251063395805271E+01   -0.411125564575195312E+02
    0.781474529529675332E+00    0.844756350318823195E+02    0.472853687509925358E+01   -0.411012496948242188E+02
    0.117177550687069454E+01    0.868037578450385183E+02    0.450920229574693021E+01   -0.410871429443359375E+02
    0.218076493887639522E+01    0.789992528425147498E+02    0.419790165052247932E+01   -0.410856475830078125E+02
    0.489782498827344648E+00    0.136765560003749897E+03    0.492958344323835185E+01   -0.410761642456054688E+02
    0.550547907117502788E+00    0.105204888673556297E+03    0.483542988514365035E+01   -0.410665206909179688E+02
    0.788055381027161217E+00    0.818422666844573996E+02    0.468086194014697821E+01   -0.410326347351074219E+02
    0.531949983832326945E+00    0.102876231214660635E+03    0.488315993613209010E+01   -0.410284500122070312E+02
    0.103473243349183575E+01    0.731383317281619156E+02    0.453225019373737226E+01   -0.410119438171386719E+02
    0.857601039038951907E+00    0.915430172558104971E+02    0.465591385815836656E+01   -0.410077056884765625E+02
    0.678063210510314818E+00    0.902863210702707306E+02    0.481805112511003575E+01   -0.410014495849609375E+02
    0.244673832072836439E+00    0.115530309762282528E+03    0.520054931819337618E+01   -0.409823799133300781E+02
    0.130800743407336517E+01    0.950086021302890060E+02    0.447561580736726761E+01   -0.409541206359863281E+02
    0.141156135727649445E+01    0.823406099851198263E+02    0.437154211544549742E+01   -0.409285125732421875E+02
    0.773469135393555218E+00    0.828889415743791176E+02    0.471025484465546462E+01   -0.409188232421875000E+02
    0.501128754760918449E+00    0.123164026793837436E+03    0.488702358656596036E+01   -0.408715324401855469E+02
    0.379776899863734752E+00    0.114005444916261098E+03    0.501349380916454379E+01   -0.408701133728027344E+02
    0.280225769798551128E+00    0.135386467483148465E+03    0.517543685949791143E+01   -0.408426628112792969E+02
    0.197340632588664300E+00    0.137791596631878633E+03    0.514872792999690176E+01   -0.408388099670410156E+02
    0.126865671191208618E+01    0.703783998286176882E+02    0.445135675011085397E+01   -0.408324165344238281E+02
    0.683971392317936799E+00    0.918719427309897441E+02    0.479226762754730018E+01   -0.408257064819335938E+02
    0.117619326015226044E+01    0.104206107112371001E+03    0.455844167586444460E+01   -0.408198814392089844E+02
    0.599430934825581296E+00    0.100981006227559334E+03    0.489934131600059697E+01   -0.408197975158691406E+02
    0.686064753048418963E+00    0.945484960697962862E+02    0.473990896381799054E+01   -0.408157005310058594E+02
    0.143710606408202157E+00    0.143442898829084811E+03    0.521236093192338501E+01   -0.408058624267578125E+02
    0.750442134157719209E+00    0.113224625109245935E+03    0.469413112529863330E+01   -0.407984580993652344E+02
    0.409945195238810456E+00    0.119079059508320043E+03    0.502618540829170435E+01   -0.407811012268066406E+02
    0.190998385566951118E+00    0.123222890165285804E+03    0.524320702424417018E+01   -0.407464675903320312E+02
    0.599080235529214189E+00    0.989894967401990016E+02    0.487117220694691078E+01   -0.407408370971679688E+02
    0.292079910174006363E+00    0.111205401983820678E+03    0.511165597617059930E+01   -0.407401962280273438E+02
    0.191747217645254431E+00    0.117819940918819981E+03    0.515919499064742304E+01   -0.407324523925781250E+02
    0.514023325788112384E+00    0.988778817625956776E+02    0.495182253676483253E+01   -0.407163467407226562E+02
    0.296827192154984543E+00    0.118768226768207228E+03    0.511399123919758125E+01   -0.407115020751953125E+02
    0.228392941107553415E+01    0.827471322139210059E+02    0.424687509748857472E+01   -0.407032089233398438E+02
    0.190634122656989957E+01    0.924872739157763704E+02    0.425740032864398810E+01   -0.406805229187011719E+02
    0.103946148029563501E+01    0.885402069446217723E+02    0.460642937299614452E+01   -0.406659927368164062E+02
    0.165559583288266143E+00    0.127756214365497897E+03    0.524272399848288462E+01   -0.406378288269042969E+02
    0.472533681031954256E+00    0.107918803815829364E+03    0.495394740448634163E+01   -0.406327972412109375E+02
    0.319919901807997231E+00    0.121071761071365216E+03    0.510718504753655456E+01   -0.406195983886718750E+02
    0.618811693926420547E+00    0.942485729688357878E+02    0.486226921811720914E+01   -0.406150093078613281E+02
    0.101957588195171001E+01    0.989184323841705861E+02    0.458386579173486641E+01   -0.406143684387207031E+02
    0.117256814406674303E+01    0.753942723999631141E+02    0.454176031470878616E+01   -0.405994415283203125E+02
    0.665493683810456593E+00    0.937193864915135464E+02    0.480507624251389309E+01   -0.405929565429687500E+02
    0.459123262268899823E+00    0.124611426017989388E+03    0.492468722425690864E+01   -0.405459289550781250E+02
    0.401686911979608596E+00    0.103613067159013397E+03    0.499648730761973070E+01   -0.405292816162109375E+02
    0.327541252620857148E+00    0.131924914246884384E+03    0.511153889351916657E+01   -0.405242919921875000E+02
    0.114696022461420610E+01    0.830172027315213796E+02    0.450428964196499138E+01   -0.405240440368652344E+02
    0.139114060432057096E+01    0.890193208776855869E+02    0.441110038243488933E+01   -0.405162620544433594E+02
    0.222422786811048256E+01    0.108029838794729002E+03    0.422096428600847595E+01   -0.404958496093750000E+02
    0.292678123948420632E+00    0.113696358832420913E+03    0.512759416409908120E+01   -0.404664840698242188E+02
    0.576451036153503793E+00    0.916377790679160853E+02    0.489502324509762410E+01   -0.404586296081542969E+02
    0.505826534611367618E+00    0.108137522910443749E+03    0.493680157229976313E+01   -0.403897285461425781E+02
    0.579187905207189102E+00    0.100150225233058251E+03    0.487980119174593341E+01   -0.403870544433593750E+02
    0.408821405290714979E+00    0.120190543160023893E+03    0.499635216272457860E+01   -0.403744087219238281E+02
    0.529860224109087841E+00    0.961750008698851673E+02    0.487461019584613631E+01   -0.403590927124023438E+02
    0.321443916338045921E+00    0.126053017371915573E+03    0.507527595329695647E+01   -0.403494033813476562E+02
    0.132859272163053399E+01    0.951696664694651986E+02    0.447567768244829445E+01   -0.403296051025390625E+02
    0.605933788456975542E+00    0.117647361703198143E+03    0.485448079850120173E+01   -0.403249015808105469E+02
    0.214463394388640677E+00    0.140525976447617666E+03    0.518269506386244760E+01   -0.403116264343261719E+02
    0.191906811607086114E+01    0.926940320995563951E+02    0.425174730683737767E+01   -0.402972640991210938E+02
    0.734214210219533481E+00    0.831359531469254875E+02    0.475433160965227941E+01   -0.402904586791992188E+02
    0.980015117442736838E+00    0.941269617053078207E+02    0.459054854920091504E+01   -0.402849922180175781E+02
    0.757358334307542735E+00    0.859635216068711401E+02    0.471700485125162405E+01   -0.402819366455078125E+02
    0.470021524681882741E+00    0.971423919765942117E+02    0.490010540014431761E+01   -0.402751884460449219E+02
    0.665770586287211530E+00    0.102161312746421544E+03    0.477900895262515846E+01   -0.402523422241210938E+02
    0.685218453667519656E+00    0.100949943360211719E+03    0.481471906463348009E+01   -0.402490310668945312E+02
    0.741727883465236548E+00    0.988089307253686258E+02    0.472259684576811178E+01   -0.402284126281738281E+02
    0.627175906097135138E+00    0.101427724790090593E+03    0.485283578071209210E+01   -0.402284126281738281E+02
    0.564782486014188789E+00    0.106190625462494069E+03    0.484574894953657065E+01   -0.402122955322265625E+02
    0.609634497428374944E+00    0.103604934475821935E+03    0.480414583142610052E+01   -0.402015190124511719E+02
    0.184688226518392840E+00    0.132874112139492212E+03    0.519459833730018250E+01   -0.401971931457519531E+02
    0.254109730773726783E+00    0.133801860794383913E+03    0.518916798630912268E+01   -0.401498489379882812E+02
    0.719535503016422440E+00    0.858431675953203239E+02    0.475096102747079740E+01   -0.401411056518554688E+02
    0.512681520861699047E+00    0.967118957823773542E+02    0.490372809813785793E+01   -0.401133117675781250E+02
    0.350264156857939435E+00    0.114490715885981871E+03    0.508433763897025859E+01   -0.401083259582519531E+02
    0.117157095479895190E+01    0.104772312734778183E+03    0.447346580800967164E+01   -0.401002388000488281E+02
    0.227437433519676074E+00    0.131281613063755486E+03    0.520835981722261554E+01   -0.400990295410156250E+02
    0.756929322176434827E+00    0.105511466339446301E+03    0.472861493372524322E+01   -0.400844726562500000E+02
    0.682546396694932334E+00    0.103489233239320754E+03    0.480559461000113508E+01   -0.400193328857421875E+02
    0.273104346299948175E+00    0.140332651730679174E+03    0.516777827740395423E+01   -0.399989929199218750E+02
    0.164021861172328504E+00    0.132083646475651051E+03    0.520731255747550925E+01   -0.399954833984375000E+02
    0.777665638204260712E+00    0.104327207191804604E+03    0.471060603418733059E+01   -0.399851264953613281E+02
    0.251353457510532285E+00    0.113208306002044708E+03    0.512673928730634820E+01   -0.399756851196289062E+02
    0.830661717729958005E+00    0.992512297429913133E+02    0.468954947667636368E+01   -0.399594879150390625E+02
    0.598732278519071404E+00    0.105515618369476400E+03    0.485198341828913371E+01   -0.399514846801757812E+02
    0.735896307161761909E+00    0.100982659648219396E+03    0.473723836803019616E+01   -0.399497413635253906E+02
    0.598388633682306992E+00    0.914795163657309445E+02    0.484168477614611170E+01   -0.399440689086914062E+02
    0.951565276137405824E+00    0.919542832965473167E+02    0.461056478105894918E+01   -0.399429321289062500E+02
    0.627401478156051295E+00    0.100101700524277277E+03    0.485105575458297800E+01   -0.399144706726074219E+02
    0.510372556756418350E+00    0.116260516338239995E+03    0.495702971363067757E+01   -0.399131164550781250E+02
    0.594690714027504619E+00    0.969672192492878366E+02    0.482956056117908972E+01   -0.399023475646972656E+02
    0.723315058434699010E+00    0.941189386259507330E+02    0.474358407271380322E+01   -0.398703498840332031E+02
    0.145980564396184648E+00    0.138721003245510218E+03    0.525623193367369890E+01   -0.398237800598144531E+02
    0.530845758745997598E+00    0.977077621809995946E+02    0.491569410005272189E+01   -0.398191299438476562E+02
    0.193600040308181953E+00    0.120345262491516948E+03    0.520946391756822802E+01   -0.398043632507324219E+02
    0.694589005306618268E+00    0.101719937510016990E+03    0.474051451691327230E+01   -0.398003387451171875E+02
    0.201237381223834333E+00    0.141653726806460156E+03    0.521567121900618247E+01   -0.397519683837890625E+02
    0.509304152356167106E+00    0.937594327501944491E+02    0.492112801207908745E+01   -0.397467002868652344E+02
    0.773799247143920566E+00    0.840932233629510364E+02    0.469261938289191960E+01   -0.397288970947265625E+02
    0.622616216192054761E+00    0.917803966759279888E+02    0.483481541953669858E+01   -0.397254676818847656E+02
    0.667995138128063326E+00    0.969996961271835261E+02    0.479334029404788442E+01   -0.396965103149414062E+02
    0.337625359106305645E+00    0.124238212019636237E+03    0.506164239526817461E+01   -0.396880836486816406E+02
    0.703766310169361642E+00    0.939589062682700700E+02    0.472260246064651401E+01   -0.396851119995117188E+02
    0.250250264876579254E+00    0.135490982151434423E+03    0.513220863907571534E+01   -0.396847991943359375E+02
    0.553851867175048751E+00    0.975125499687314630E+02    0.488855161525388304E+01   -0.396695632934570312E+02
    0.319117755041701145E+00    0.126648777706521685E+03    0.508402247245395866E+01   -0.396586723327636719E+02
    0.112150889445307422E+01    0.807467672678205446E+02    0.450401965463248022E+01   -0.396081085205078125E+02
    0.343384997965518746E+00    0.115008992977789674E+03    0.507468077376108972E+01   -0.396018524169921875E+02
    0.597016683121097014E+00    0.102773775878223631E+03    0.486028961852750019E+01   -0.395864028930664062E+02
    0.269193309621711452E+00    0.114999006515646215E+03    0.514419568957935436E+01   -0.395365715026855469E+02
    0.783204198121668083E+00    0.941180383295436229E+02    0.469700093229483073E+01   -0.395331649780273438E+02
    0.677069926278435430E+00    0.104613711394600188E+03    0.483656819496544976E+01   -0.394911193847656250E+02
    0.276692627117603340E+00    0.121400392263296681E+03    0.512376001971574535E+01   -0.394645881652832031E+02
    0.214541741962794297E+00    0.113117595187583561E+03    0.519081307096455191E+01   -0.394336204528808594E+02
    0.603547668377874658E+00    0.106613938016166898E+03    0.480969269846076841E+01   -0.394307022094726562E+02
    0.588961344145658705E+00    0.108082268395773013E+03    0.484529026246421335E+01   -0.394020118713378906E+02
    0.195428117784338967E+00    0.127217179397382608E+03    0.518492665595666935E+01   -0.393999214172363281E+02
    0.803117735066512184E+00    0.937081424054461536E+02    0.467104907990908202E+01   -0.393893661499023438E+02
    0.351100524324593544E+00    0.117379486434294307E+03    0.505610802282177563E+01   -0.393827896118164062E+02
    0.987993889214508481E+00    0.954546370488082658E+02    0.455647291003012622E+01   -0.393785247802734375E+02
    0.193732196648067928E+00    0.127425896543944773E+03    0.522524453235667252E+01   -0.393710861206054688E+02
    0.157113998396762877E+00    0.137212414298336341E+03    0.525239890807801935E+01   -0.393225555419921875E+02
    0.154750862308199177E+00    0.124315052632149246E+03    0.519328520015891648E+01   -0.393040428161621094E+02
    0.542931809283375699E+00    0.962423426021329931E+02    0.488487690478183634E+01   -0.392855072021484375E+02
    0.698885755136964937E+00    0.105433309168597930E+03    0.481708437700956882E+01   -0.392796058654785156E+02
    0.832482204061257614E+00    0.100315173421988789E+03    0.467838787188992278E+01   -0.392712211608886719E+02
    0.218953761740249442E+00    0.120847184472700718E+03    0.518788020891782953E+01   -0.392296180725097656E+02
    0.498048310341543288E+00    0.970367795987604893E+02    0.489743711437583418E+01   -0.392138366699218750E+02
    0.557170319029498318E+00    0.111973470158072530E+03    0.490107752382756079E+01   -0.392116279602050781E+02
    0.231015198589541115E+00    0.127082875757720799E+03    0.514091755332339062E+01   -0.392082176208496094E+02
    0.189430070004664386E+00    0.132494199751034557E+03    0.520339073231676430E+01   -0.391865882873535156E+02
    0.644714633889524658E+00    0.907427949952520692E+02    0.478948418139380205E+01   -0.391624412536621094E+02
    0.251022826752014316E+00    0.123988262113822870E+03    0.512339997790086876E+01   -0.391425743103027344E+02
    0.664920009951412427E+00    0.850793634983162974E+02    0.478775161727380372E+01   -0.391334533691406250E+02
    0.622880328120596460E+00    0.102503695011745265E+03    0.477252875296088952E+01   -0.391228828430175781E+02
    0.762341635884504543E+00    0.986506527494666585E+02    0.473501238373078603E+01   -0.391156082153320312E+02
    0.138846015414979762E+00    0.139625726722255024E+03    0.524506398664670748E+01   -0.391141166687011719E+02
    0.143414866407518854E+00    0.112549733293319221E+03    0.524747861580054753E+01   -0.390890235900878906E+02
    0.841355478362316278E+00    0.966425746097234111E+02    0.464565262392158118E+01   -0.390687141418457031E+02
    0.346958525052364686E+00    0.115069760449928026E+03    0.505874131527776871E+01   -0.390470123291015625E+02
    0.129866351914150524E+00    0.135610778168017930E+03    0.527962413830959854E+01   -0.386497917175292969E+02
    0.265701650614254103E+00    0.132284192007787624E+03    0.514511185645872171E+01   -0.386036796569824219E+02
    0.160924744741667569E+00    0.141007072336102169E+03    0.522491629483108433E+01   -0.385451354980468750E+02
    0.165660372207161566E+00    0.133764285954811328E+03    0.519467590405509316E+01   -0.388681526184082031E+02
    0.153913793955426703E+00    0.134148407725073071E+03    0.521669974012502013E+01   -0.373001289367675781E+02
    0.153913793955426703E+00    0.134148407725073071E+03    0.521669974012502013E+01   -0.373001289367675781E+02
    0.153913793955426703E+00    0.134148407725073071E+03    0.521669974012502013E+01   -0.373001289367675781E+02
    0.153913793955426703E+00    0.134148407725073071E+03    0.521669974012502013E+01   -0.373001289367675781E+02
    0.189623309563590137E+00    0.138317508381912546E+03    0.517075497393478667E+01   -0.376205558776855469E+02
    0.189623309563590137E+00    0.138317508381912546E+03    0.517075497393478667E+01   -0.376205558776855469E+02
    0.189623309563590137E+00    0.138317508381912546E+03    0.517075497393478667E+01   -0.376205558776855469E+02
    0.158009111488758125E+00    0.133529958881375336E+03    0.521450641505339618E+01   -0.377794647216796875E+02
    0.158009111488758125E+00    0.133529958881375336E+03    0.521450641505339618E+01   -0.377794647216796875E+02
    0.200007481038694201E+00    0.138393418795277000E+03    0.517963298822829010E+01   -0.390469093322753906E+02
    0.172220320332959198E+00    0.138266879253686795E+03    0.523398758265677877E+01   -0.390466728210449219E+02
    0.147677549897262339E+00    0.132956465895358008E+03    0.523018065585942526E+01   -0.374503898620605469E+02
    0.147677549897262339E+00    0.132956465895358008E+03    0.523018065585942526E+01   -0.374503898620605469E+02
    0.147677549897262339E+00    0.132956465895358008E+03    0.523018065585942526E+01   -0.374503898620605469E+02
    0.147682057942825767E+00    0.141101260791301570E+03    0.524472365154280684E+01   -0.384307212829589844E+02
    0.263214046921029621E+00    0.128212129641592526E+03    0.513480845400679708E+01   -0.381931152343750000E+02
    0.263214046921029621E+00    0.128212129641592526E+03    0.513480845400679708E+01   -0.381931152343750000E+02
    0.271903737218808284E+00    0.123493636497144578E+03    0.515362208359462226E+01   -0.384758148193359375E+02
    0.196516368731085522E+00    0.123040354254738986E+03    0.521730881910716882E+01   -0.384248504638671875E+02
    0.150955721771309559E+00    0.126164001964819491E+03    0.522846965145101183E+01   -0.385917167663574219E+02
    0.150955721771309559E+00    0.126164001964819491E+03    0.522846965145101183E+01   -0.385917167663574219E+02
    0.249987572687617732E+00    0.126201162255237151E+03    0.512463686393704787E+01   -0.390113105773925781E+02
    0.197501855848855767E+00    0.129685804462468411E+03    0.520431585721329348E+01   -0.387111015319824219E+02
    0.212305455524001374E+00    0.128072563201276580E+03    0.516523924139625379E+01   -0.373062095642089844E+02
    0.212305455524001374E+00    0.128072563201276580E+03    0.516523924139625379E+01   -0.373062095642089844E+02
    0.212305455524001374E+00    0.128072563201276580E+03    0.516523924139625379E+01   -0.373062095642089844E+02
    0.212305455524001374E+00    0.128072563201276580E+03    0.516523924139625379E+01   -0.373062095642089844E+02
    0.221246504670351618E+00    0.129886561676115150E+03    0.519034239251325769E+01   -0.375023727416992188E+02
    0.221246504670351618E+00    0.129886561676115150E+03    0.519034239251325769E+01   -0.375023727416992188E+02
    0.221246504670351618E+00    0.129886561676115150E+03    0.519034239251325769E+01   -0.375023727416992188E+02
    0.221246504670351618E+00    0.129886561676115150E+03    0.519034239251325769E+01   -0.375023727416992188E+02
    0.192893545718711201E+00    0.122490071403894135E+03    0.522441089838649653E+01   -0.383167991638183594E+02
    0.188816821144876912E+00    0.122117551198903655E+03    0.516702993653831566E+01   -0.388060302734375000E+02
    0.233569560001371301E+00    0.121628485220577446E+03    0.515702635679407884E+01   -0.373954544067382812E+02
    0.233569560001371301E+00    0.121628485220577446E+03    0.515702635679407884E+01   -0.373954544067382812E+02
    0.233569560001371301E+00    0.121628485220577446E+03    0.515702635679407884E+01   -0.373954544067382812E+02
    0.233569560001371301E+00    0.121628485220577446E+03    0.515702635679407884E+01   -0.373954544067382812E+02
    0.239078016604155896E+00    0.117062936139496259E+03    0.514960099442591535E+01   -0.379936256408691406E+02
    0.239078016604155896E+00    0.117062936139496259E+03    0.514960099442591535E+01   -0.379936256408691406E+02
    0.197788649700548269E+00    0.116207984819848392E+03    0.516780333200323572E+01   -0.382558860778808594E+02
    0.169340189470050834E+00    0.116072802997720785E+03    0.522098236132724569E+01   -0.381125984191894531E+02
    0.264087520456229075E+00    0.112671286075799145E+03    0.513262951124760480E+01   -0.389848670959472656E+02
    0.256129541533628824E+00    0.115205683814304663E+03    0.513040235520384069E+01   -0.382756385803222656E+02
    0.217803614523845723E+00    0.114265836676752940E+03    0.514661409121040414E+01   -0.383085327148437500E+02
    0.202957734281656588E+00    0.112579947625014512E+03    0.516000079557549007E+01   -0.384094543457031250E+02
    0.202957734281656588E+00    0.112579947625014512E+03    0.516000079557549007E+01   -0.384094543457031250E+02
    0.177996858495783589E+00    0.110765709879403218E+03    0.522924963531711473E+01   -0.380533866882324219E+02
    0.281278583440790930E+00    0.117211583858080644E+03    0.512203715332729814E+01   -0.386499824523925781E+02
    0.177156580381202799E+00    0.113409984097676272E+03    0.521714291243330841E+01   -0.375311012268066406E+02
    0.177156580381202799E+00    0.113409984097676272E+03    0.521714291243330841E+01   -0.375311012268066406E+02
    0.177156580381202799E+00    0.113409984097676272E+03    0.521714291243330841E+01   -0.375311012268066406E+02
    0.177156580381202799E+00    0.113409984097676272E+03    0.521714291243330841E+01   -0.375311012268066406E+02
    0.278667492861935706E+00    0.111318079506311150E+03    0.513173827308670116E+01   -0.381371421813964844E+02
    0.282343548202321715E+00    0.113342720725649315E+03    0.516378594130909185E+01   -0.377495536804199219E+02
    0.282343548202321715E+00    0.113342720725649315E+03    0.516378594130909185E+01   -0.377495536804199219E+02
    0.157332268118356294E+00    0.122580896816556233E+03    0.522668761945057625E+01   -0.365127182006835938E+02
    0.157332268118356294E+00    0.122580896816556233E+03    0.522668761945057625E+01   -0.365127182006835938E+02
    0.157332268118356294E+00    0.122580896816556233E+03    0.522668761945057625E+01   -0.365127182006835938E+02
    0.157332268118356294E+00    0.122580896816556233E+03    0.522668761945057625E+01   -0.365127182006835938E+02
    0.157332268118356294E+00    0.122580896816556233E+03    0.522668761945057625E+01   -0.365127182006835938E+02
    0.157332268118356294E+00    0.122580896816556233E+03    0.522668761945057625E+01   -0.365127182006835938E+02
    0.157332268118356294E+00    0.122580896816556233E+03    0.522668761945057625E+01   -0.365127182006835938E+02
    0.157332268118356294E+00    0.122580896816556233E+03    0.522668761945057625E+01   -0.365127182006835938E+02
    0.157332268118356294E+00    0.122580896816556233E+03    0.522668761945057625E+01   -0.365127182006835938E+02
    0.191534842005303657E+00    0.129184702508644364E+03    0.521894006354064022E+01   -0.383121566772460938E+02
    0.161886847802993894E+00    0.132902479678020541E+03    0.521312037576004883E+01   -0.382972297668457031E+02
    0.224103726890447497E+00    0.114441941367267034E+03    0.519054121089319054E+01   -0.386843681335449219E+02
    0.207996422145974913E+00    0.121627140363708179E+03    0.515622633521064788E+01   -0.390084457397460938E+02
    0.238656554365073159E+00    0.125973928292512269E+03    0.517240110905255701E+01   -0.375772132873535156E+02
    0.238656554365073159E+00    0.125973928292512269E+03    0.517240110905255701E+01   -0.375772132873535156E+02
    0.238656554365073159E+00    0.125973928292512269E+03    0.517240110905255701E+01   -0.375772132873535156E+02
    0.246590527596703385E+00    0.116839557985257045E+03    0.518791513197712906E+01   -0.383116569519042969E+02
    0.265552971710227737E+00    0.112666527407995261E+03    0.517888643043868413E+01   -0.383196144104003906E+02
    0.265552971710227737E+00    0.112666527407995261E+03    0.517888643043868413E+01   -0.383196144104003906E+02
    0.151804603230948409E+00    0.127959073885448021E+03    0.523641470176668111E+01   -0.374625511169433594E+02
    0.151804603230948409E+00    0.127959073885448021E+03    0.523641470176668111E+01   -0.374625511169433594E+02
    0.151804603230948409E+00    0.127959073885448021E+03    0.523641470176668111E+01   -0.374625511169433594E+02
    0.172310533882817807E+00    0.126308759359272386E+03    0.522306520816075004E+01   -0.379101409912109375E+02
    0.172310533882817807E+00    0.126308759359272386E+03    0.522306520816075004E+01   -0.379101409912109375E+02
    0.177556069328310917E+00    0.118198546324703671E+03    0.517420059642989472E+01   -0.383954772949218750E+02
    0.177556069328310917E+00    0.118198546324703671E+03    0.517420059642989472E+01   -0.383954772949218750E+02
    0.218209620775785235E+00    0.111921790249359702E+03    0.521456148178908485E+01   -0.389129791259765625E+02
    0.185104097408347490E+00    0.127745372361116068E+03    0.520637457386460500E+01   -0.386114082336425781E+02
    0.156459032113801966E+00    0.112218595830153660E+03    0.522162524677114792E+01   -0.386929130554199219E+02
    0.165987748688783743E+00    0.108200488759963918E+03    0.521183180794138146E+01   -0.379904479980468750E+02
    0.165987748688783743E+00    0.108200488759963918E+03    0.521183180794138146E+01   -0.379904479980468750E+02
    0.326089390785795408E+00    0.120987422276111261E+03    0.506177546045339444E+01   -0.384706802368164062E+02
    0.218699432358686663E+00    0.123222386355516406E+03    0.515810213615473856E+01   -0.389415016174316406E+02
    0.270609018555626912E+00    0.116880856484760585E+03    0.517489589241375914E+01   -0.387421264648437500E+02
    0.262536667379413946E+00    0.124109366054638841E+03    0.511884299912250285E+01   -0.384098777770996094E+02
    0.262536667379413946E+00    0.124109366054638841E+03    0.511884299912250285E+01   -0.384098777770996094E+02
    0.279591327941682843E+00    0.124220429615760310E+03    0.513183042230425901E+01   -0.390435371398925781E+02
    0.274486593903541798E+00    0.115641674350272694E+03    0.514461661616990629E+01   -0.373225021362304688E+02
    0.274486593903541798E+00    0.115641674350272694E+03    0.514461661616990629E+01   -0.373225021362304688E+02
    0.274486593903541798E+00    0.115641674350272694E+03    0.514461661616990629E+01   -0.373225021362304688E+02
    0.151987536967367831E+00    0.113127992887129096E+03    0.521588082623497407E+01   -0.389827194213867188E+02
    0.330205300298927473E+00    0.110892000996167482E+03    0.508008732857588541E+01   -0.381137924194335938E+02
    0.330205300298927473E+00    0.110892000996167482E+03    0.508008732857588541E+01   -0.381137924194335938E+02
    0.198532935725525994E+00    0.120842436043815141E+03    0.516942361117160853E+01   -0.385383949279785156E+02
    0.144191354390759224E+00    0.122848960630945243E+03    0.521663927443400688E+01   -0.366818542480468750E+02
    0.144191354390759224E+00    0.122848960630945243E+03    0.521663927443400688E+01   -0.366818542480468750E+02
    0.144191354390759224E+00    0.122848960630945243E+03    0.521663927443400688E+01   -0.366818542480468750E+02
    0.144191354390759224E+00    0.122848960630945243E+03    0.521663927443400688E+01   -0.366818542480468750E+02
    0.144191354390759224E+00    0.122848960630945243E+03    0.521663927443400688E+01   -0.366818542480468750E+02
    0.144191354390759224E+00    0.122848960630945243E+03    0.521663927443400688E+01   -0.366818542480468750E+02
    0.144191354390759224E+00    0.122848960630945243E+03    0.521663927443400688E+01   -0.366818542480468750E+02
    0.144191354390759224E+00    0.122848960630945243E+03    0.521663927443400688E+01   -0.366818542480468750E+02
    0.260914672764272659E+00    0.114907107544294689E+03    0.517276906753985699E+01   -0.383798332214355469E+02
    0.159810191529063811E+00    0.118442516435782963E+03    0.522284255256887953E+01   -0.378289566040039062E+02
    0.159810191529063811E+00    0.118442516435782963E+03    0.522284255256887953E+01   -0.378289566040039062E+02
    0.286545573066232462E+00    0.125203519748875337E+03    0.512838829310121369E+01   -0.388177070617675781E+02
    0.201950862466150127E+00    0.116974431498537626E+03    0.515941702523381984E+01   -0.370099716186523438E+02
    0.201950862466150127E+00    0.116974431498537626E+03    0.515941702523381984E+01   -0.370099716186523438E+02
    0.201950862466150127E+00    0.116974431498537626E+03    0.515941702523381984E+01   -0.370099716186523438E+02
    0.201950862466150127E+00    0.116974431498537626E+03    0.515941702523381984E+01   -0.370099716186523438E+02
    0.201950862466150127E+00    0.116974431498537626E+03    0.515941702523381984E+01   -0.370099716186523438E+02
    0.201950862466150127E+00    0.116974431498537626E+03    0.515941702523381984E+01   -0.370099716186523438E+02
    0.148642450759569278E+00    0.131200839231735529E+03    0.524729865756493208E+01   -0.376931190490722656E+02
    0.148642450759569278E+00    0.131200839231735529E+03    0.524729865756493208E+01   -0.376931190490722656E+02
    0.148642450759569278E+00    0.131200839231735529E+03    0.524729865756493208E+01   -0.376931190490722656E+02
    0.166951435769391143E+00    0.120114049259060252E+03    0.524312844372182862E+01   -0.383336143493652344E+02
    0.232903664265637134E+00    0.112522429196166740E+03    0.517294731290725629E+01   -0.380513038635253906E+02
    0.232903664265637134E+00    0.112522429196166740E+03    0.517294731290725629E+01   -0.380513038635253906E+02
    0.243363317662603079E+00    0.128803472741891937E+03    0.518953759380022284E+01   -0.387143249511718750E+02
    0.164120961095346740E+00    0.127341967820678036E+03    0.523205315574858076E+01   -0.378633918762207031E+02
    0.164120961095346740E+00    0.127341967820678036E+03    0.523205315574858076E+01   -0.378633918762207031E+02
    0.167523639481966857E+00    0.126284192022005456E+03    0.522492826800175791E+01   -0.377378959655761719E+02
    0.167523639481966857E+00    0.126284192022005456E+03    0.522492826800175791E+01   -0.377378959655761719E+02
    0.167523639481966857E+00    0.126284192022005456E+03    0.522492826800175791E+01   -0.377378959655761719E+02
    0.172162714315765575E+00    0.108167609346433224E+03    0.521821622911247740E+01   -0.384694709777832031E+02
    0.189752480343664959E+00    0.119481509914926420E+03    0.519179914780662877E+01   -0.383552055358886719E+02
    0.552798877378289810E+00    0.112999856932287059E+03    0.488370015836541693E+01   -0.390206871032714844E+02
    0.779207045459779701E+00    0.101674922329486677E+03    0.469143512563816856E+01   -0.387861824035644531E+02
    0.495039457793576720E+00    0.110747992052186845E+03    0.493469148688948867E+01   -0.390103759765625000E+02
    0.642239787075100876E+00    0.112929134814969501E+03    0.483167329827401737E+01   -0.388441429138183594E+02
    0.590927757818668131E+00    0.109826038790236282E+03    0.487587909379659123E+01   -0.376665153503417969E+02
    0.590927757818668131E+00    0.109826038790236282E+03    0.487587909379659123E+01   -0.376665153503417969E+02
    0.511732699219665355E+00    0.916482876174923717E+02    0.491368122194123735E+01   -0.386183509826660156E+02
    0.495165196301184718E+00    0.951127459816340775E+02    0.488753037550673142E+01   -0.387164993286132812E+02
    0.499813434163113579E+00    0.943736528292732402E+02    0.490949916308298651E+01   -0.385502777099609375E+02
    0.515655009139768139E+00    0.101130646496419871E+03    0.494036559932541408E+01   -0.383605537414550781E+02
    0.517985909821832680E+00    0.929031393038724218E+02    0.491798014740320344E+01   -0.386562843322753906E+02
    0.532532502420782206E+00    0.925103590501230855E+02    0.490458173783844842E+01   -0.381127166748046875E+02
    0.532532502420782206E+00    0.925103590501230855E+02    0.490458173783844842E+01   -0.381127166748046875E+02
    0.518397445090273856E+00    0.983588451761890070E+02    0.490629065611365789E+01   -0.377194747924804688E+02
    0.518397445090273856E+00    0.983588451761890070E+02    0.490629065611365789E+01   -0.377194747924804688E+02
    0.490680192815253990E+00    0.926046018180450119E+02    0.491519876787910270E+01   -0.383507461547851562E+02
    0.490680192815253990E+00    0.926046018180450119E+02    0.491519876787910270E+01   -0.383507461547851562E+02
    0.555140653991556432E+00    0.966325902500844052E+02    0.488983711176863345E+01   -0.387655944824218750E+02
    0.611957526493788317E+00    0.101270585582794439E+03    0.479123427615691977E+01   -0.382551040649414062E+02
    0.612214904422533790E+00    0.104435222145821456E+03    0.484022063528636881E+01   -0.389542808532714844E+02
    0.653127556842976853E+00    0.102241994094588790E+03    0.478929905063904293E+01   -0.388427581787109375E+02
    0.727680027157459941E+00    0.100562750631310308E+03    0.472482128793788814E+01   -0.384027290344238281E+02
    0.727680027157459941E+00    0.100562750631310308E+03    0.472482128793788814E+01   -0.384027290344238281E+02
    0.827536411597765476E+00    0.105586697439425848E+03    0.470470187441846566E+01   -0.384768333435058594E+02
    0.827536411597765476E+00    0.105586697439425848E+03    0.470470187441846566E+01   -0.384768333435058594E+02
    0.720791913894018643E+00    0.988814470386685969E+02    0.472498056097605534E+01   -0.383145523071289062E+02
    0.720791913894018643E+00    0.988814470386685969E+02    0.472498056097605534E+01   -0.383145523071289062E+02
    0.796324799660200755E+00    0.975775581506303666E+02    0.470611572746716877E+01   -0.385165519714355469E+02
    0.739998146321790951E+00    0.984679756234344268E+02    0.470774173977825772E+01   -0.379747734069824219E+02
    0.739998146321790951E+00    0.984679756234344268E+02    0.470774173977825772E+01   -0.379747734069824219E+02
    0.224213798693907851E+01    0.105679072134687658E+03    0.420763141782024874E+01   -0.390410003662109375E+02
    0.130504999114993625E+01    0.940105951707787000E+02    0.443815456155318167E+01   -0.390094413757324219E+02
